digraph Tree {
node [shape=box, style="filled, rounded", color="black", fontname=helvetica] ;
edge [fontname=helvetica] ;
0 [label="Quartos <= 0.5\ngini = 0.5\nsamples = 396\nvalue = [199, 197]\nclass = False", fillcolor="#fffefd"] ;
1 [label="Andares <= 0.5\ngini = 0.474\nsamples = 231\nvalue = [89, 142]\nclass = True", fillcolor="#b5daf5"] ;
0 -> 1 [labeldistance=2.5, labelangle=45, headlabel="True"] ;
2 [label="Area construida <= 0.5\ngini = 0.442\nsamples = 167\nvalue = [55, 112]\nclass = True", fillcolor="#9acdf2"] ;
1 -> 2 ;
3 [label="Porao <= 0.5\ngini = 0.397\nsamples = 143\nvalue = [39, 104]\nclass = True", fillcolor="#83c2ef"] ;
2 -> 3 ;
4 [label="Nivel de construcao <= 0.5\ngini = 0.364\nsamples = 121\nvalue = [29, 92]\nclass = True", fillcolor="#77bced"] ;
3 -> 4 ;
5 [label="Area do lote <= 0.5\ngini = 0.347\nsamples = 112\nvalue = [25, 87]\nclass = True", fillcolor="#72b9ec"] ;
4 -> 5 ;
6 [label="Estado de conservacao <= 0.5\ngini = 0.317\nsamples = 81\nvalue = [16, 65]\nclass = True", fillcolor="#6ab5eb"] ;
5 -> 6 ;
7 [label="Banheiros <= 0.5\ngini = 0.153\nsamples = 12\nvalue = [1, 11]\nclass = True", fillcolor="#4ba6e7"] ;
6 -> 7 ;
8 [label="gini = 0.245\nsamples = 7\nvalue = [1, 6]\nclass = True", fillcolor="#5aade9"] ;
7 -> 8 ;
9 [label="gini = 0.0\nsamples = 5\nvalue = [0, 5]\nclass = True", fillcolor="#399de5"] ;
7 -> 9 ;
10 [label="Banheiros <= 0.5\ngini = 0.34\nsamples = 69\nvalue = [15, 54]\nclass = True", fillcolor="#70b8ec"] ;
6 -> 10 ;
11 [label="gini = 0.334\nsamples = 52\nvalue = [11, 41]\nclass = True", fillcolor="#6eb7ec"] ;
10 -> 11 ;
12 [label="gini = 0.36\nsamples = 17\nvalue = [4, 13]\nclass = True", fillcolor="#76bbed"] ;
10 -> 12 ;
13 [label="Estado de conservacao <= 0.5\ngini = 0.412\nsamples = 31\nvalue = [9, 22]\nclass = True", fillcolor="#8ac5f0"] ;
5 -> 13 ;
14 [label="Banheiros <= 0.5\ngini = 0.5\nsamples = 6\nvalue = [3, 3]\nclass = False", fillcolor="#ffffff"] ;
13 -> 14 ;
15 [label="gini = 0.375\nsamples = 4\nvalue = [3, 1]\nclass = False", fillcolor="#eeab7b"] ;
14 -> 15 ;
16 [label="gini = 0.0\nsamples = 2\nvalue = [0, 2]\nclass = True", fillcolor="#399de5"] ;
14 -> 16 ;
17 [label="Banheiros <= 0.5\ngini = 0.365\nsamples = 25\nvalue = [6, 19]\nclass = True", fillcolor="#78bced"] ;
13 -> 17 ;
18 [label="gini = 0.337\nsamples = 14\nvalue = [3, 11]\nclass = True", fillcolor="#6fb8ec"] ;
17 -> 18 ;
19 [label="gini = 0.397\nsamples = 11\nvalue = [3, 8]\nclass = True", fillcolor="#83c2ef"] ;
17 -> 19 ;
20 [label="Estado de conservacao <= 0.5\ngini = 0.494\nsamples = 9\nvalue = [4, 5]\nclass = True", fillcolor="#d7ebfa"] ;
4 -> 20 ;
21 [label="Area do lote <= 0.5\ngini = 0.375\nsamples = 4\nvalue = [3, 1]\nclass = False", fillcolor="#eeab7b"] ;
20 -> 21 ;
22 [label="Banheiros <= 0.5\ngini = 0.5\nsamples = 2\nvalue = [1, 1]\nclass = False", fillcolor="#ffffff"] ;
21 -> 22 ;
23 [label="gini = 0.0\nsamples = 1\nvalue = [1, 0]\nclass = False", fillcolor="#e58139"] ;
22 -> 23 ;
24 [label="gini = 0.0\nsamples = 1\nvalue = [0, 1]\nclass = True", fillcolor="#399de5"] ;
22 -> 24 ;
25 [label="gini = 0.0\nsamples = 2\nvalue = [2, 0]\nclass = False", fillcolor="#e58139"] ;
21 -> 25 ;
26 [label="Area do lote <= 0.5\ngini = 0.32\nsamples = 5\nvalue = [1, 4]\nclass = True", fillcolor="#6ab6ec"] ;
20 -> 26 ;
27 [label="gini = 0.444\nsamples = 3\nvalue = [1, 2]\nclass = True", fillcolor="#9ccef2"] ;
26 -> 27 ;
28 [label="gini = 0.0\nsamples = 2\nvalue = [0, 2]\nclass = True", fillcolor="#399de5"] ;
26 -> 28 ;
29 [label="Nivel de construcao <= 0.5\ngini = 0.496\nsamples = 22\nvalue = [10, 12]\nclass = True", fillcolor="#deeffb"] ;
3 -> 29 ;
30 [label="Estado de conservacao <= 0.5\ngini = 0.494\nsamples = 18\nvalue = [10, 8]\nclass = False", fillcolor="#fae6d7"] ;
29 -> 30 ;
31 [label="gini = 0.0\nsamples = 2\nvalue = [0, 2]\nclass = True", fillcolor="#399de5"] ;
30 -> 31 ;
32 [label="Area do lote <= 0.5\ngini = 0.469\nsamples = 16\nvalue = [10, 6]\nclass = False", fillcolor="#f5cdb0"] ;
30 -> 32 ;
33 [label="Banheiros <= 0.5\ngini = 0.426\nsamples = 13\nvalue = [9, 4]\nclass = False", fillcolor="#f1b991"] ;
32 -> 33 ;
34 [label="gini = 0.0\nsamples = 3\nvalue = [3, 0]\nclass = False", fillcolor="#e58139"] ;
33 -> 34 ;
35 [label="gini = 0.48\nsamples = 10\nvalue = [6, 4]\nclass = False", fillcolor="#f6d5bd"] ;
33 -> 35 ;
36 [label="Banheiros <= 0.5\ngini = 0.444\nsamples = 3\nvalue = [1, 2]\nclass = True", fillcolor="#9ccef2"] ;
32 -> 36 ;
37 [label="gini = 0.0\nsamples = 1\nvalue = [0, 1]\nclass = True", fillcolor="#399de5"] ;
36 -> 37 ;
38 [label="gini = 0.5\nsamples = 2\nvalue = [1, 1]\nclass = False", fillcolor="#ffffff"] ;
36 -> 38 ;
39 [label="gini = 0.0\nsamples = 4\nvalue = [0, 4]\nclass = True", fillcolor="#399de5"] ;
29 -> 39 ;
40 [label="Porao <= 0.5\ngini = 0.444\nsamples = 24\nvalue = [16, 8]\nclass = False", fillcolor="#f2c09c"] ;
2 -> 40 ;
41 [label="gini = 0.0\nsamples = 4\nvalue = [4, 0]\nclass = False", fillcolor="#e58139"] ;
40 -> 41 ;
42 [label="Estado de conservacao <= 0.5\ngini = 0.48\nsamples = 20\nvalue = [12, 8]\nclass = False", fillcolor="#f6d5bd"] ;
40 -> 42 ;
43 [label="Area do lote <= 0.5\ngini = 0.49\nsamples = 7\nvalue = [3, 4]\nclass = True", fillcolor="#cee6f8"] ;
42 -> 43 ;
44 [label="gini = 0.444\nsamples = 6\nvalue = [2, 4]\nclass = True", fillcolor="#9ccef2"] ;
43 -> 44 ;
45 [label="gini = 0.0\nsamples = 1\nvalue = [1, 0]\nclass = False", fillcolor="#e58139"] ;
43 -> 45 ;
46 [label="Area do lote <= 0.5\ngini = 0.426\nsamples = 13\nvalue = [9, 4]\nclass = False", fillcolor="#f1b991"] ;
42 -> 46 ;
47 [label="Nivel de construcao <= 0.5\ngini = 0.375\nsamples = 8\nvalue = [6, 2]\nclass = False", fillcolor="#eeab7b"] ;
46 -> 47 ;
48 [label="gini = 0.375\nsamples = 4\nvalue = [3, 1]\nclass = False", fillcolor="#eeab7b"] ;
47 -> 48 ;
49 [label="gini = 0.375\nsamples = 4\nvalue = [3, 1]\nclass = False", fillcolor="#eeab7b"] ;
47 -> 49 ;
50 [label="Nivel de construcao <= 0.5\ngini = 0.48\nsamples = 5\nvalue = [3, 2]\nclass = False", fillcolor="#f6d5bd"] ;
46 -> 50 ;
51 [label="gini = 0.444\nsamples = 3\nvalue = [2, 1]\nclass = False", fillcolor="#f2c09c"] ;
50 -> 51 ;
52 [label="gini = 0.5\nsamples = 2\nvalue = [1, 1]\nclass = False", fillcolor="#ffffff"] ;
50 -> 52 ;
53 [label="Nivel de construcao <= 0.5\ngini = 0.498\nsamples = 64\nvalue = [34, 30]\nclass = False", fillcolor="#fcf0e8"] ;
1 -> 53 ;
54 [label="Area do lote <= 0.5\ngini = 0.337\nsamples = 28\nvalue = [22, 6]\nclass = False", fillcolor="#eca36f"] ;
53 -> 54 ;
55 [label="Banheiros <= 0.5\ngini = 0.269\nsamples = 25\nvalue = [21, 4]\nclass = False", fillcolor="#ea995f"] ;
54 -> 55 ;
56 [label="gini = 0.5\nsamples = 2\nvalue = [1, 1]\nclass = False", fillcolor="#ffffff"] ;
55 -> 56 ;
57 [label="Estado de conservacao <= 0.5\ngini = 0.227\nsamples = 23\nvalue = [20, 3]\nclass = False", fillcolor="#e99457"] ;
55 -> 57 ;
58 [label="Area construida <= 0.5\ngini = 0.291\nsamples = 17\nvalue = [14, 3]\nclass = False", fillcolor="#eb9c63"] ;
57 -> 58 ;
59 [label="gini = 0.32\nsamples = 15\nvalue = [12, 3]\nclass = False", fillcolor="#eca06a"] ;
58 -> 59 ;
60 [label="gini = 0.0\nsamples = 2\nvalue = [2, 0]\nclass = False", fillcolor="#e58139"] ;
58 -> 60 ;
61 [label="gini = 0.0\nsamples = 6\nvalue = [6, 0]\nclass = False", fillcolor="#e58139"] ;
57 -> 61 ;
62 [label="Banheiros <= 0.5\ngini = 0.444\nsamples = 3\nvalue = [1, 2]\nclass = True", fillcolor="#9ccef2"] ;
54 -> 62 ;
63 [label="gini = 0.5\nsamples = 2\nvalue = [1, 1]\nclass = False", fillcolor="#ffffff"] ;
62 -> 63 ;
64 [label="gini = 0.0\nsamples = 1\nvalue = [0, 1]\nclass = True", fillcolor="#399de5"] ;
62 -> 64 ;
65 [label="Area construida <= 0.5\ngini = 0.444\nsamples = 36\nvalue = [12, 24]\nclass = True", fillcolor="#9ccef2"] ;
53 -> 65 ;
66 [label="gini = 0.0\nsamples = 3\nvalue = [0, 3]\nclass = True", fillcolor="#399de5"] ;
65 -> 66 ;
67 [label="Area do lote <= 0.5\ngini = 0.463\nsamples = 33\nvalue = [12, 21]\nclass = True", fillcolor="#aad5f4"] ;
65 -> 67 ;
68 [label="Porao <= 0.5\ngini = 0.483\nsamples = 22\nvalue = [9, 13]\nclass = True", fillcolor="#c2e1f7"] ;
67 -> 68 ;
69 [label="Estado de conservacao <= 0.5\ngini = 0.457\nsamples = 17\nvalue = [6, 11]\nclass = True", fillcolor="#a5d2f3"] ;
68 -> 69 ;
70 [label="gini = 0.469\nsamples = 16\nvalue = [6, 10]\nclass = True", fillcolor="#b0d8f5"] ;
69 -> 70 ;
71 [label="gini = 0.0\nsamples = 1\nvalue = [0, 1]\nclass = True", fillcolor="#399de5"] ;
69 -> 71 ;
72 [label="gini = 0.48\nsamples = 5\nvalue = [3, 2]\nclass = False", fillcolor="#f6d5bd"] ;
68 -> 72 ;
73 [label="Porao <= 0.5\ngini = 0.397\nsamples = 11\nvalue = [3, 8]\nclass = True", fillcolor="#83c2ef"] ;
67 -> 73 ;
74 [label="Estado de conservacao <= 0.5\ngini = 0.444\nsamples = 9\nvalue = [3, 6]\nclass = True", fillcolor="#9ccef2"] ;
73 -> 74 ;
75 [label="gini = 0.444\nsamples = 6\nvalue = [2, 4]\nclass = True", fillcolor="#9ccef2"] ;
74 -> 75 ;
76 [label="gini = 0.444\nsamples = 3\nvalue = [1, 2]\nclass = True", fillcolor="#9ccef2"] ;
74 -> 76 ;
77 [label="gini = 0.0\nsamples = 2\nvalue = [0, 2]\nclass = True", fillcolor="#399de5"] ;
73 -> 77 ;
78 [label="Nivel de construcao <= 0.5\ngini = 0.444\nsamples = 165\nvalue = [110, 55]\nclass = False", fillcolor="#f2c09c"] ;
0 -> 78 [labeldistance=2.5, labelangle=-45, headlabel="False"] ;
79 [label="Area construida <= 0.5\ngini = 0.266\nsamples = 76\nvalue = [64, 12]\nclass = False", fillcolor="#ea995e"] ;
78 -> 79 ;
80 [label="Banheiros <= 0.5\ngini = 0.444\nsamples = 36\nvalue = [24, 12]\nclass = False", fillcolor="#f2c09c"] ;
79 -> 80 ;
81 [label="Area do lote <= 0.5\ngini = 0.48\nsamples = 5\nvalue = [2, 3]\nclass = True", fillcolor="#bddef6"] ;
80 -> 81 ;
82 [label="Porao <= 0.5\ngini = 0.444\nsamples = 3\nvalue = [2, 1]\nclass = False", fillcolor="#f2c09c"] ;
81 -> 82 ;
83 [label="Estado de conservacao <= 0.5\ngini = 0.5\nsamples = 2\nvalue = [1, 1]\nclass = False", fillcolor="#ffffff"] ;
82 -> 83 ;
84 [label="gini = 0.0\nsamples = 1\nvalue = [1, 0]\nclass = False", fillcolor="#e58139"] ;
83 -> 84 ;
85 [label="gini = 0.0\nsamples = 1\nvalue = [0, 1]\nclass = True", fillcolor="#399de5"] ;
83 -> 85 ;
86 [label="gini = 0.0\nsamples = 1\nvalue = [1, 0]\nclass = False", fillcolor="#e58139"] ;
82 -> 86 ;
87 [label="gini = 0.0\nsamples = 2\nvalue = [0, 2]\nclass = True", fillcolor="#399de5"] ;
81 -> 87 ;
88 [label="Andares <= 0.5\ngini = 0.412\nsamples = 31\nvalue = [22, 9]\nclass = False", fillcolor="#f0b58a"] ;
80 -> 88 ;
89 [label="Estado de conservacao <= 0.5\ngini = 0.351\nsamples = 22\nvalue = [17, 5]\nclass = False", fillcolor="#eda673"] ;
88 -> 89 ;
90 [label="Area do lote <= 0.5\ngini = 0.48\nsamples = 5\nvalue = [3, 2]\nclass = False", fillcolor="#f6d5bd"] ;
89 -> 90 ;
91 [label="gini = 0.0\nsamples = 2\nvalue = [2, 0]\nclass = False", fillcolor="#e58139"] ;
90 -> 91 ;
92 [label="Porao <= 0.5\ngini = 0.444\nsamples = 3\nvalue = [1, 2]\nclass = True", fillcolor="#9ccef2"] ;
90 -> 92 ;
93 [label="gini = 0.5\nsamples = 2\nvalue = [1, 1]\nclass = False", fillcolor="#ffffff"] ;
92 -> 93 ;
94 [label="gini = 0.0\nsamples = 1\nvalue = [0, 1]\nclass = True", fillcolor="#399de5"] ;
92 -> 94 ;
95 [label="Porao <= 0.5\ngini = 0.291\nsamples = 17\nvalue = [14, 3]\nclass = False", fillcolor="#eb9c63"] ;
89 -> 95 ;
96 [label="Area do lote <= 0.5\ngini = 0.26\nsamples = 13\nvalue = [11, 2]\nclass = False", fillcolor="#ea985d"] ;
95 -> 96 ;
97 [label="gini = 0.198\nsamples = 9\nvalue = [8, 1]\nclass = False", fillcolor="#e89152"] ;
96 -> 97 ;
98 [label="gini = 0.375\nsamples = 4\nvalue = [3, 1]\nclass = False", fillcolor="#eeab7b"] ;
96 -> 98 ;
99 [label="Area do lote <= 0.5\ngini = 0.375\nsamples = 4\nvalue = [3, 1]\nclass = False", fillcolor="#eeab7b"] ;
95 -> 99 ;
100 [label="gini = 0.5\nsamples = 2\nvalue = [1, 1]\nclass = False", fillcolor="#ffffff"] ;
99 -> 100 ;
101 [label="gini = 0.0\nsamples = 2\nvalue = [2, 0]\nclass = False", fillcolor="#e58139"] ;
99 -> 101 ;
102 [label="Porao <= 0.5\ngini = 0.494\nsamples = 9\nvalue = [5, 4]\nclass = False", fillcolor="#fae6d7"] ;
88 -> 102 ;
103 [label="Estado de conservacao <= 0.5\ngini = 0.469\nsamples = 8\nvalue = [5, 3]\nclass = False", fillcolor="#f5cdb0"] ;
102 -> 103 ;
104 [label="gini = 0.444\nsamples = 6\nvalue = [4, 2]\nclass = False", fillcolor="#f2c09c"] ;
103 -> 104 ;
105 [label="gini = 0.5\nsamples = 2\nvalue = [1, 1]\nclass = False", fillcolor="#ffffff"] ;
103 -> 105 ;
106 [label="gini = 0.0\nsamples = 1\nvalue = [0, 1]\nclass = True", fillcolor="#399de5"] ;
102 -> 106 ;
107 [label="gini = 0.0\nsamples = 40\nvalue = [40, 0]\nclass = False", fillcolor="#e58139"] ;
79 -> 107 ;
108 [label="Area construida <= 0.5\ngini = 0.499\nsamples = 89\nvalue = [46, 43]\nclass = False", fillcolor="#fdf7f2"] ;
78 -> 108 ;
109 [label="gini = 0.0\nsamples = 7\nvalue = [0, 7]\nclass = True", fillcolor="#399de5"] ;
108 -> 109 ;
110 [label="Porao <= 0.5\ngini = 0.493\nsamples = 82\nvalue = [46, 36]\nclass = False", fillcolor="#f9e4d4"] ;
108 -> 110 ;
111 [label="Area do lote <= 0.5\ngini = 0.494\nsamples = 54\nvalue = [24, 30]\nclass = True", fillcolor="#d7ebfa"] ;
110 -> 111 ;
112 [label="Estado de conservacao <= 0.5\ngini = 0.5\nsamples = 46\nvalue = [23, 23]\nclass = False", fillcolor="#ffffff"] ;
111 -> 112 ;
113 [label="gini = 0.5\nsamples = 45\nvalue = [23, 22]\nclass = False", fillcolor="#fefaf6"] ;
112 -> 113 ;
114 [label="gini = 0.0\nsamples = 1\nvalue = [0, 1]\nclass = True", fillcolor="#399de5"] ;
112 -> 114 ;
115 [label="Estado de conservacao <= 0.5\ngini = 0.219\nsamples = 8\nvalue = [1, 7]\nclass = True", fillcolor="#55abe9"] ;
111 -> 115 ;
116 [label="gini = 0.278\nsamples = 6\nvalue = [1, 5]\nclass = True", fillcolor="#61b1ea"] ;
115 -> 116 ;
117 [label="gini = 0.0\nsamples = 2\nvalue = [0, 2]\nclass = True", fillcolor="#399de5"] ;
115 -> 117 ;
118 [label="Area do lote <= 0.5\ngini = 0.337\nsamples = 28\nvalue = [22, 6]\nclass = False", fillcolor="#eca36f"] ;
110 -> 118 ;
119 [label="Andares <= 0.5\ngini = 0.444\nsamples = 12\nvalue = [8, 4]\nclass = False", fillcolor="#f2c09c"] ;
118 -> 119 ;
120 [label="Estado de conservacao <= 0.5\ngini = 0.278\nsamples = 6\nvalue = [5, 1]\nclass = False", fillcolor="#ea9a61"] ;
119 -> 120 ;
121 [label="gini = 0.0\nsamples = 1\nvalue = [1, 0]\nclass = False", fillcolor="#e58139"] ;
120 -> 121 ;
122 [label="gini = 0.32\nsamples = 5\nvalue = [4, 1]\nclass = False", fillcolor="#eca06a"] ;
120 -> 122 ;
123 [label="gini = 0.5\nsamples = 6\nvalue = [3, 3]\nclass = False", fillcolor="#ffffff"] ;
119 -> 123 ;
124 [label="Andares <= 0.5\ngini = 0.219\nsamples = 16\nvalue = [14, 2]\nclass = False", fillcolor="#e99355"] ;
118 -> 124 ;
125 [label="Estado de conservacao <= 0.5\ngini = 0.32\nsamples = 10\nvalue = [8, 2]\nclass = False", fillcolor="#eca06a"] ;
124 -> 125 ;
126 [label="gini = 0.375\nsamples = 4\nvalue = [3, 1]\nclass = False", fillcolor="#eeab7b"] ;
125 -> 126 ;
127 [label="gini = 0.278\nsamples = 6\nvalue = [5, 1]\nclass = False", fillcolor="#ea9a61"] ;
125 -> 127 ;
128 [label="gini = 0.0\nsamples = 6\nvalue = [6, 0]\nclass = False", fillcolor="#e58139"] ;
124 -> 128 ;
}